/*
    * weights.h
    *
    *  Created on: Nov 14, 2023
    *      Author: erenyildiz
    */

#ifndef WEIGHTS_H_
#define WEIGHTS_H_
#include "fixed.h"
#include "mem.h"

#define DEPTH 4
#define N_LEAVES 16
#define INPUT_SIZE 784
#define LEAF_WIDTH 16
#define OUTPUT_SIZE 10
#define SIMPLIFIED_LEAVES 5

__hifram fixed FASTINFERENCE[N_LEAVES] = {
-1, 1, -1, -1, -1, -1, -1, 5, -1, -1, 7, 7, -1, -1, 4, -1
};

#define NODE_WEIGHTS_NNZ 1090
__hifram fixed NODE_WEIGHTS_data[NODE_WEIGHTS_NNZ] = {
0.7367739081382751, 0.9368775486946106, 0.620089054107666, 0.8722092509269714, 0.8946358561515808, 0.9546375870704651, 0.7392050623893738, 0.7126339077949524, 0.8079204559326172, 0.65927654504776, 0.6022634506225586, 0.6405397057533264, 0.6944766044616699, 0.8101522326469421, -0.8696992993354797, 0.7209906578063965, 0.6133844256401062, 0.7994764447212219, 0.904014527797699, 0.738357424736023, 0.8689374327659607, 0.8704564571380615, 0.8457401394844055, 0.6786363124847412, 0.7999100089073181, 1.0476523637771606, 0.6143046617507935, 0.7200232744216919, 0.7265849113464355, 0.7257811427116394, 0.7452350854873657, -0.8196808695793152, -0.6835315823554993, -0.8652914762496948, -1.070929765701294, -0.8924970030784607, -0.651862621307373, -0.8140376806259155, -0.6852466464042664, -0.7352656126022339, -1.3579264879226685, -1.5665154457092285, -1.214725136756897, -0.6931601166725159, -0.9847554564476013, -0.8865833282470703, -0.8951002359390259, -1.073175311088562, -1.1084994077682495, -0.8030033707618713, -0.8726155161857605, 0.5817613005638123, 0.6443909406661987, -0.8853641748428345, -0.7434725165367126, -0.6859595775604248, -0.9398370981216431, 0.5737534165382385, -0.8007563352584839, 1.1887634992599487, 1.2345771789550781, 0.9089224934577942, 1.235905647277832, -0.8845278024673462, -0.6749711632728577, -0.8486774563789368, 0.8710358142852783, 1.4358445405960083, 1.128434181213379, -0.7380204200744629, 0.7314927577972412, 0.8446447253227234, 0.6107089519500732, 0.6572145223617554, 0.712397575378418, -0.7439092397689819, -0.583825409412384, -0.8201318979263306, -0.6604602336883545, -0.8657253980636597, 0.7206801772117615, 0.8141351342201233, 0.8174178600311279, 0.5976804494857788, 0.7741740345954895, 0.6338130235671997, 0.8226362466812134, 0.586220383644104, 0.7532473206520081, 0.7200353741645813, 0.7061001062393188, 0.6870241761207581, 1.1786231994628906, 1.7576340436935425, 1.503398060798645, 1.060024380683899, 1.1874492168426514, 0.9995391368865967, 1.1040396690368652, 0.8609498739242554, 0.8771839737892151, 0.7276777625083923, 0.9971453547477722, 0.8383328914642334, 0.6078881621360779, -0.8591598868370056, -1.0673458576202393, -0.7381424307823181, 0.6846767067909241, 0.6664820313453674, -0.7084226012229919, -0.870764970779419, -0.641211986541748, 0.8465840220451355, -0.9061198234558105, -1.0236117839813232, -0.7875324487686157, -0.5308545231819153, -0.8247556090354919, -0.8604199886322021, -0.7261862754821777, -0.9360015392303467, -0.7825561761856079, 0.8183632493019104, 0.8455728888511658, 0.615982711315155, -0.7277372479438782, -1.10905122756958, -0.8265619277954102, 0.8173497915267944, -0.5863672494888306, -0.7858810424804688, 0.7176560759544373, -0.5919381380081177, -1.031379222869873, 1.0471464395523071, 0.7544860243797302, 0.7704461812973022, 0.8556321859359741, 0.6020099520683289, 0.8457134366035461, -0.8893254995346069, -0.609411358833313, -0.9121322631835938, -1.1422011852264404, -0.6978093981742859, -1.152116060256958, -0.8314498066902161, -0.8960988521575928, -0.7545064091682434, -0.7388527393341064, -0.8157949447631836, -0.7383552193641663, -0.8057178854942322, -0.8203626871109009, -0.6893059611320496, -0.9529754519462585, -0.6430135369300842, 0.721332848072052, 0.8464909791946411, 0.695016086101532, -0.9826989769935608, 0.763171911239624, -0.6353747844696045, -0.6557034850120544, -0.7058072090148926, -0.6540421843528748, 1.102820634841919, -1.2656598091125488, -0.9196580052375793, -0.6622835993766785, 0.7336982488632202, -0.9943485856056213, -0.7178040146827698, -0.7810660004615784, -0.7206220030784607, -0.718535840511322, -1.0763537883758545, -0.7784535884857178, -0.6102384924888611, -0.8796993494033813, -1.1215083599090576, 1.0762972831726074, 1.0038341283798218, 0.6656832098960876, -0.8686382174491882, -0.7766439914703369, -0.7285964488983154, -1.100843071937561, -0.905558705329895, -1.5578649044036865, -1.7885366678237915, -2.025482654571533, -1.4533978700637817, 0.8124407529830933, 0.8955519199371338, 0.5029332637786865, 0.7154334783554077, 0.6841210126876831, 0.8717077374458313, 1.142544150352478, 0.7961138486862183, 0.6571041345596313, 1.0106735229492188, -0.8874158263206482, -1.494507074356079, -1.1318355798721313, -1.3095543384552002, -1.2376914024353027, 0.6578332781791687, -0.6308565139770508, 0.7235375642776489, -0.5935816168785095, -0.6042847037315369, -1.0050098896026611, -1.082273006439209, -0.947541356086731, -0.9678338766098022, 1.0365036725997925, -0.7055055499076843, -0.8342457413673401, -0.6682637333869934, -0.7715303897857666, 1.1537511348724365, -0.5694137811660767, -0.4609801173210144, -0.597510576248169, -0.683414101600647, -1.0290884971618652, -1.5014160871505737, -1.363270878791809, -1.038019061088562, -0.7123282551765442, 0.9822522401809692, 1.0100576877593994, 0.7785634398460388, 0.6452930569648743, 0.8245411515235901, 1.0986167192459106, 0.803171694278717, -0.8666179180145264, 0.8785092234611511, 1.3851923942565918, 0.9240745306015015, 0.8454704284667969, 0.83092200756073, 0.84681636095047, 0.8967927694320679, 0.9345735907554626, 0.6727979779243469, 0.9298241138458252, -0.8138467073440552, 0.8028773069381714, 0.827132523059845, -0.7972785234451294, -0.5339571833610535, -0.6309924125671387, -0.9560684561729431, -0.7977083325386047, 0.8229742050170898, 0.8429675698280334, 0.6315332055091858, 0.7221885323524475, -0.7292865514755249, 0.5698643922805786, 0.7678982019424438, 1.0135457515716553, 0.8134112358093262, 0.6252397894859314, 0.7674149870872498, 0.8914315700531006, 0.8397772908210754, -0.557353138923645, -0.8428878784179688, -1.0383399724960327, 0.8708392381668091, -0.9429420232772827, -0.6960157155990601, -1.031019926071167, -0.8336295485496521, -0.9954463243484497, -0.7170738577842712, -0.8474317193031311, 0.9514563083648682, -0.6827810406684875, -0.6585299372673035, -0.7170314192771912, -0.8729348182678223, 0.6924335956573486, 0.7608460187911987, 0.6635696887969971, -0.7991489171981812, -0.7820271253585815, 0.7237493991851807, 0.9264416098594666, -0.8449684381484985, -0.8053209781646729, -0.7686470150947571, -1.3061623573303223, -0.829767107963562, -0.6937247514724731, -0.7070243954658508, -1.1744678020477295, -0.7217181324958801, -1.6099491119384766, -0.7081032991409302, -0.7750641703605652, -1.1470253467559814, -1.4621381759643555, -0.698107123374939, -1.1560163497924805, 0.7145604491233826, -0.8731793761253357, -1.0161715745925903, 1.0690302848815918, -0.6819046139717102, 0.4466935992240906, 1.061815857887268, -1.1219474077224731, -1.0055214166641235, -0.7300577163696289, -0.5959843397140503, -0.6752980351448059, -0.6063927412033081, -0.7500734329223633, -0.8516597747802734, -0.8083493113517761, -1.035121202468872, 1.15116286277771, -0.5454216003417969, 0.7464775443077087, -0.5667436122894287, -0.7095792889595032, -0.832499623298645, 0.6418386697769165, -0.69875168800354, -0.7243573665618896, -0.9827039241790771, -1.040040373802185, -0.996107280254364, -1.0002974271774292, -0.7694516181945801, -0.6844620108604431, -0.8035135865211487, 0.6244879364967346, 0.8878729343414307, 0.7138168811798096, 1.168893814086914, 1.1563094854354858, 0.7993910908699036, 0.8746036291122437, 0.9256538152694702, 0.8677659630775452, 1.5554381608963013, 1.5065966844558716, 1.2106146812438965, 0.6327265501022339, 1.1129511594772339, 0.7862597703933716, 1.2921839952468872, 0.7547010183334351, 1.0888347625732422, 0.8471882343292236, 1.2260082960128784, 0.6662665605545044, 1.296646237373352, 1.8368372917175293, 2.3977718353271484, 1.680496335029602, 1.1989518404006958, 1.9244073629379272, 1.9665104150772095, 1.3983838558197021, 1.1867140531539917, 1.4350632429122925, 1.1836813688278198, 0.6132891178131104, 0.747586190700531, 1.1830265522003174, 1.1354609727859497, 1.3484899997711182, 1.1942106485366821, 1.1011302471160889, 0.9118422865867615, 0.8611901998519897, 0.5737619400024414, 0.8122233748435974, 0.8399691581726074, 0.6550166606903076, 0.48320797085762024, 0.8585962653160095, 0.789326012134552, -0.8391380310058594, 0.803186297416687, 0.6556376218795776, 0.7670372724533081, -0.6745302081108093, -1.3836308717727661, -0.6552681922912598, -0.7499964237213135, -1.3032983541488647, 0.8952645659446716, -0.8309532403945923, -0.7348083257675171, -0.7421068549156189, -0.6524591445922852, -1.144635796546936, -1.162095069885254, -1.0326162576675415, -0.7126473784446716, -0.8581092953681946, -1.139525294303894, -0.9695512056350708, -1.051587462425232, -0.6971397995948792, -0.7849515676498413, -0.7971101403236389, -1.2184998989105225, -0.8310542106628418, -0.698447048664093, 0.9311008453369141, -0.7636191248893738, -0.9151203632354736, -1.2968504428863525, -0.8269107341766357, 0.8954190015792847, -0.6848528981208801, 0.8509619832038879, 1.150854229927063, 0.7771543264389038, 0.6059366464614868, 0.9646424651145935, 0.737392783164978, 0.6855851411819458, -0.8525945544242859, -0.7198312878608704, -0.7721908092498779, -0.8977863788604736, 1.6030118465423584, -1.083014965057373, -0.8804270625114441, 0.5763301849365234, -0.777202308177948, 0.6610093712806702, -1.2829848527908325, -0.8301708698272705, -0.8166967630386353, -0.9891788959503174, 0.843766450881958, -0.8823985457420349, -0.7042939066886902, -1.3943777084350586, 0.750835657119751, 0.6655803918838501, -0.9007783532142639, 1.4276269674301147, 1.0583800077438354, -0.9137716889381409, 0.9913836717605591, -0.5722002983093262, 0.9268444776535034, 0.8498860001564026, -1.2402253150939941, 0.7329450249671936, 1.3497283458709717, 1.2586339712142944, 0.9234840869903564, -0.7334450483322144, 0.6824278235435486, -1.2089117765426636, -0.8217689394950867, -0.9787734150886536, -0.857350766658783, -1.1337928771972656, -0.8194289207458496, -0.8701373338699341, -0.8000780344009399, 0.7746268510818481, 0.702565610408783, 0.7313232421875, 0.7481548190116882, 0.8842032551765442, 1.140345573425293, 0.8241564631462097, 1.5027735233306885, 0.9650817513465881, 1.0356473922729492, 0.7271097898483276, 0.6439628601074219, 1.0365464687347412, 0.6955073475837708, 0.8843372464179993, 0.8775488138198853, 0.7369734644889832, 0.7930421829223633, 1.313798189163208, -0.8375353217124939, 1.1400725841522217, 0.947201132774353, 0.8598629236221313, -0.8986189365386963, -1.0110551118850708, -0.6347197890281677, -0.704303503036499, 1.379416823387146, 0.744025707244873, -1.3502990007400513, -0.7932444214820862, -0.5033705830574036, -0.6653261184692383, -0.9906529188156128, -0.7633049488067627, -0.8251444697380066, -0.8003243803977966, -0.9195731282234192, -1.2991130352020264, -1.0248594284057617, -1.2460204362869263, -0.9824272394180298, -0.6400211453437805, -0.9087053537368774, -0.8101048469543457, 1.0956013202667236, -1.0223385095596313, -0.7668761610984802, 0.7602170705795288, 0.5993318557739258, 0.6170219779014587, 0.8963689208030701, 0.7890756130218506, -0.78226238489151, -1.0218369960784912, -1.193872094154358, -0.8446810245513916, 0.9270390868186951, -1.0165880918502808, -0.9013210535049438, -1.0716807842254639, 0.7478998303413391, -0.7087156176567078, -1.0600699186325073, -1.597533106803894, -1.0628043413162231, -0.7731521129608154, -1.2385518550872803, -1.420850157737732, -0.6806631684303284, -0.8092286586761475, -0.9720749855041504, -1.0172287225723267, -1.101224660873413, -0.7266898155212402, -0.668454647064209, -1.0281766653060913, -0.8342254757881165, -0.9622353911399841, -1.5174041986465454, -0.7627627849578857, -0.8031646609306335, -1.1087467670440674, -1.6766481399536133, -1.0689057111740112, -0.9161539673805237, -0.7601545453071594, -1.096384048461914, -0.7198117971420288, -0.6898896098136902, 0.7616719603538513, -0.8294369578361511, -0.7225295305252075, -0.8536694049835205, 0.5887072682380676, -0.9462816715240479, -0.8138008117675781, -0.6480621099472046, -0.7995615005493164, 1.0316636562347412, 1.7791770696640015, 0.5705954432487488, 0.7010765671730042, 0.984377384185791, 0.7324042320251465, 0.8265160918235779, 0.9736812710762024, 0.7658028602600098, 1.037878155708313, 1.197845458984375, 1.2034714221954346, 0.9580759406089783, 1.189821720123291, 0.6953848004341125, 0.9374264478683472, 1.0054616928100586, 1.152230978012085, 1.4131349325180054, 0.6647246479988098, -0.7718608379364014, -0.671454131603241, -0.7286592125892639, -0.7638044357299805, -0.9690720438957214, -0.8230791687965393, -0.6558406352996826, -0.6569937467575073, -0.7925747036933899, 0.696370542049408, -0.7079175710678101, -0.8787519335746765, -0.785515308380127, -0.5712161064147949, -0.6701109409332275, -0.9945829510688782, 0.4999956786632538, 0.5054517388343811, -0.5902938842773438, 0.4840542674064636, -0.8124436736106873, -0.8214123249053955, -0.5715410709381104, -0.9573887586593628, -0.6952051520347595, -0.5804634690284729, 1.101094126701355, 0.7651228308677673, 1.1726303100585938, -0.5703443884849548, 1.0631024837493896, -0.8863727450370789, -0.6462235450744629, 0.9560474753379822, -0.543114423751831, 1.2451647520065308, 1.2129443883895874, -0.7327207922935486, -0.5730335712432861, 0.7631085515022278, 0.6819776892662048, -0.9390630722045898, -1.272658109664917, -0.644514799118042, 0.5057999491691589, -1.5058274269104004, -0.8454606533050537, -0.7442986369132996, -0.6899711489677429, 0.8211381435394287, -0.6967833042144775, -1.0733420848846436, 0.8666797876358032, -0.746493935585022, -0.7536587715148926, -0.7993965148925781, -0.9080128073692322, 0.5920937061309814, -0.6481523513793945, -0.7452988028526306, -0.6738022565841675, 0.6933040618896484, 0.5938208699226379, 0.8677341341972351, 1.0442646741867065, 0.6598695516586304, 0.678758978843689, 0.9054270386695862, 1.120802640914917, 0.8747515082359314, 1.209314227104187, 1.7431565523147583, 2.225687265396118, 1.8289066553115845, 1.2278695106506348, 0.6328521966934204, -0.5261519551277161, 1.219415307044983, 0.9691537022590637, 0.8957430720329285, 0.5414725542068481, -0.7358925342559814, 0.8179442286491394, 0.6259627342224121, 0.9141401648521423, 0.9417831897735596, 0.8697739243507385, 1.1863781213760376, 0.97881680727005, 1.8847594261169434, 1.3432223796844482, -0.8406042456626892, 0.7504157423973083, 0.9244617223739624, -0.6012631058692932, -1.0847214460372925, 0.8443671464920044, -0.6613359451293945, -0.6146063804626465, -1.331982135772705, -0.7219383716583252, 0.6844080090522766, 0.9509508609771729, -0.7502545714378357, -0.7173886895179749, -0.5926017761230469, -0.9058937430381775, -0.9345333576202393, -0.9817577004432678, 0.6536646485328674, 1.231037974357605, 0.7874603867530823, -0.9607166647911072, -0.7502855062484741, -0.9169434309005737, -0.7000000476837158, 0.7301420569419861, 0.7721632122993469, 0.732528567314148, 0.5810528993606567, -0.7334992289543152, 0.8584040999412537, 0.6162869930267334, 1.5085668563842773, 1.1646817922592163, 0.8265717029571533, -0.7194770574569702, -0.6368422508239746, 1.0617128610610962, 1.4311984777450562, 1.2297075986862183, -0.8478206992149353, -1.2037063837051392, 0.9704282879829407, 0.665592610836029, 1.5560908317565918, -0.8294185996055603, 0.7683138251304626, 0.9084432125091553, 1.5439138412475586, 1.4431699514389038, -0.8225642442703247, 0.9117701649665833, 1.475841999053955, 0.6510394215583801, 1.360102891921997, -0.6291143298149109, 0.6145222783088684, 1.2059625387191772, 0.8950355052947998, 0.7391417026519775, 0.5798289179801941, 0.6260325908660889, 0.6354201436042786, 0.7947973012924194, 1.166077971458435, 0.6667207479476929, 0.5774121880531311, 1.054691195487976, 0.7603957653045654, 1.1659961938858032, 1.09190833568573, 0.7490193843841553, 0.778617799282074, 0.7470406889915466, 0.7485900521278381, 0.8886589407920837, 0.6240420341491699, 1.1923836469650269, 1.6618072986602783, 1.5786584615707397, -1.1354427337646484, -1.2857964038848877, -1.077276349067688, 0.671629011631012, -0.9027928709983826, 0.6649160981178284, -0.7136676907539368, -0.569746196269989, -0.9769387245178223, -0.7297524809837341, -0.7385056614875793, -0.721820056438446, -0.5852534174919128, 0.9507195949554443, 0.720126211643219, 0.7902969717979431, 0.49248072504997253, -1.1267094612121582, -0.6768612265586853, -1.1114991903305054, -0.9049763679504395, -1.0307763814926147, -1.13942551612854, -1.1130642890930176, -0.6306719779968262, -0.8222918510437012, 0.575031042098999, -0.8588950037956238, -0.8214229345321655, -0.7278534173965454, -0.6090810894966125, 0.6034618020057678, 1.2655340433120728, -0.6535210609436035, 0.7282576560974121, 1.0503661632537842, 0.7036723494529724, -0.5642620325088501, 0.8153784275054932, 0.7751158475875854, 0.9278391003608704, 1.0829493999481201, 1.1068965196609497, 0.592953622341156, 0.6015652418136597, 0.9904689192771912, -0.9651553630828857, -0.7219823598861694, -1.2900854349136353, -0.6287339329719543, -0.8142663836479187, -0.9841114282608032, -0.6668699383735657, -0.6522932648658752, -0.9252554178237915, -0.8667773604393005, -0.6838741898536682, -0.8200947046279907, -0.9352531433105469, -0.9415704011917114, -0.9059805274009705, -0.8279716968536377, -0.699500560760498, -0.5701739192008972, -0.8992570042610168, -0.9837443828582764, 1.0038725137710571, 0.6438085436820984, -0.8927750587463379, -1.0629298686981201, 0.7931743860244751, 0.949186384677887, 0.7713497281074524, 0.7040733098983765, 0.7520574331283569, 0.9007272124290466, 0.804764986038208, -1.208030104637146, -0.7977137565612793, 0.7762109637260437, 0.6658892035484314, 0.7172116041183472, 0.8610866069793701, 1.0939888954162598, 0.9871503114700317, 1.0336601734161377, 0.8142683506011963, 1.1275172233581543, -0.6111091375350952, 1.4075837135314941, 0.6105993390083313, -0.9386337995529175, -1.011101245880127, -1.3444099426269531, -1.8449513912200928, -1.1135684251785278, 0.9572960138320923, -0.6815018653869629, 0.6764025688171387, 0.9086007475852966, 1.0186197757720947, 0.8971356153488159, -0.817489504814148, -0.5903798341751099, -0.9178508520126343, 0.6396634578704834, -0.6755610704421997, 0.7639291286468506, -0.6451708078384399, -0.6155974268913269, 0.6949979662895203, 0.6133794784545898, 0.8899936676025391, 1.0323563814163208, -0.6882991790771484, 0.952424168586731, -0.7282301187515259, -0.5893251895904541, -1.1761524677276611, -1.3788843154907227, -0.840545117855072, -0.9673988819122314, -0.7778846621513367, -0.999663770198822, -0.6172993183135986, 0.6723679304122925, -0.6410031914710999, -0.8357451558113098, -0.7207656502723694, 0.737982451915741, 0.7860401272773743, -1.1174179315567017, -1.1431745290756226, -0.9201765060424805, 0.9757096767425537, 0.6180252432823181, 0.863258421421051, 0.7956894040107727, 0.8025882244110107, 0.6704907417297363, 0.7170766592025757, 0.6092900037765503, -0.7058885097503662, 1.1183676719665527, 0.85455322265625, 0.7608662843704224, 0.9203834533691406, 0.9503031373023987, -0.6652944684028625, -0.7180392742156982, 1.006352186203003, -1.016162633895874, -1.1503517627716064, -0.7707850337028503, -0.8697686791419983, -1.4712822437286377, -0.7913765907287598, -0.7309691905975342, -0.6002845168113708, -0.8835760354995728, 0.7852436304092407, 0.8420222401618958, 0.7112923860549927, -1.0444536209106445, -1.0340354442596436, -1.1917644739151, 0.7758886814117432, -0.7714105844497681, -1.0127002000808716, -1.5156372785568237, -1.6327265501022339, -0.8175540566444397, -0.8700090646743774, -1.0538963079452515, -1.335455298423767, -0.6685132384300232, -0.846839189529419, -1.6549146175384521, -0.6826093196868896, -0.9593368172645569, -1.0750313997268677, -0.8477725982666016, 1.0863898992538452, 0.8474279642105103, -1.165549874305725, -0.6160861253738403, -0.6050169467926025, -0.7354661226272583, 0.9117568135261536, 0.915188729763031, 0.9068433046340942, 0.947730302810669, 1.3349006175994873, 0.7835768461227417, 1.0846999883651733, 1.1631320714950562, 0.9632865786552429, -0.9186331033706665, -0.8285185694694519, -0.7092205882072449, -0.7760443687438965, -0.8648133873939514, 0.7035207748413086, -0.9716119170188904, 1.0048116445541382, -0.7272794842720032, -1.4370394945144653, -0.5960493087768555, -1.1573948860168457, -0.8851098418235779, -0.6185793876647949, -0.9721589088439941, -1.3269206285476685, 0.7158337235450745, 0.6100128293037415, -0.7740560173988342, -0.7667249441146851, -0.9840837121009827, -1.1362571716308594, -0.9258174896240234, -1.0857089757919312, -1.0557254552841187, -0.7514837980270386, -1.118554711341858, -1.1491690874099731, -1.58185875415802, -1.5203837156295776, -1.234527349472046, -0.9371304512023926, -0.92677241563797, -1.008025050163269, -0.8332901000976562, -1.072029709815979, -1.0941804647445679, -0.7821352481842041, -0.6963452100753784, 0.6099988222122192, 0.9703385829925537, -0.5995304584503174, -0.5618898272514343, -0.5391556024551392, -1.015596866607666, -0.7405999302864075, -0.8119991421699524, -0.6147575378417969, 0.9266818165779114, 0.777554452419281, -0.6236943602561951, -0.5693945288658142, -0.7803792357444763, -0.9982605576515198, 1.2806369066238403, 0.6944224834442139, 1.0733941793441772, -0.8325452208518982, 0.8741685152053833, -0.8005229234695435, 0.7550469040870667, -0.7347385287284851, -0.7807992696762085, -1.0053566694259644, 0.9002019166946411, 0.8800356984138489, 1.0429184436798096, 0.6971237659454346, -0.554191529750824, 0.7625098824501038, -0.6645448207855225, 0.6178682446479797, -0.6789456009864807, 0.7521377801895142, 0.9949477910995483, -0.659323513507843, 0.885891318321228, 0.92198246717453, 1.0793665647506714, -1.013608694076538, -0.8160187005996704, -0.8703849911689758, 1.05302894115448, -0.6748663783073425, 0.9162387251853943, 0.712203323841095, 0.6111589670181274, 0.5398704409599304, 1.01445734500885, 0.618807315826416, 1.1506991386413574, 0.5671464204788208, 0.6334738731384277, -0.9373208284378052, -0.9411489367485046, -0.9424865245819092, 0.6716996431350708, -0.793340265750885, 0.61833655834198, 0.9693814516067505, 0.7990170121192932, 1.1434086561203003, 0.9708552360534668, 1.5661014318466187, 1.582592248916626, 0.5807806253433228, 0.6578976511955261, 0.8056904673576355, 0.886513888835907, 1.2778338193893433, 0.8370820879936218, 0.6384902000427246, 0.7433675527572632, 0.7982560992240906, 0.944413959980011, 1.1381248235702515, 1.2703776359558105, 1.2725374698638916, 1.3777409791946411, 1.4995924234390259, 0.7648947834968567, 0.8135759830474854, 0.7867493629455566, 1.088706374168396, 0.928955614566803, 0.8629112243652344
};

__hifram fixed NODE_WEIGHTS_offset[NODE_WEIGHTS_NNZ] = {
37, 8, 16, 2, 1, 2, 1, 2, 1, 12, 7, 109, 28, 57, 39, 14, 31, 81, 28, 28, 1, 29, 26, 55, 52, 30, 1, 6, 63, 1, 9, 3, 37, 1, 1, 8, 1, 1, 1, 10, 9, 1, 1, 1, 1, 1, 2, 2, 1, 1, 8, 2, 1, 10, 26, 5, 11, 28, 54, 1, 28, 1, 27, 26, 27, 1, 2, 1, 28, 26, 27, 85, 25, 4, 24, 10, 39, 8, 32, 1, 22, 36, 19, 9, 1, 1, 7, 2, 19, 1, 1, 1, 3, 1, 3, 1, 1, 4, 73, 16, 3, 2, 2, 2, 19, 21, 1, 1, 4, 1, 21, 1, 55, 3, 53, 1, 114, 1, 1, 55, 1, 27, 27, 27, 83, 28, 32, 1, 1, 22, 16, 3, 8, 48, 6, 42, 5, 1, 1, 18, 1, 21, 2, 24, 83, 11, 17, 23, 3, 2, 48, 13, 19, 1, 29, 4, 23, 1, 37, 46, 27, 3, 27, 2, 76, 48, 19, 21, 7, 1, 7, 12, 8, 8, 8, 2, 1, 15, 1, 1, 1, 1, 1, 1, 7, 42, 1, 22, 1, 1, 3, 1, 1, 1, 4, 14, 2, 4, 19, 77, 5, 28, 54, 26, 82, 2, 1, 27, 1, 3, 24, 4, 16, 8, 7, 2, 19, 2, 3, 5, 1, 6, 11, 5, 3, 1, 1, 1, 1, 1, 1, 1, 1, 17, 28, 6, 15, 7, 1, 7, 15, 5, 1, 28, 4, 19, 12, 13, 9, 10, 41, 2, 17, 1, 6, 1, 3, 6, 1, 10, 1, 3, 9, 18, 53, 1, 52, 1, 28, 14, 43, 28, 1, 12, 26, 17, 11, 16, 12, 16, 11, 28, 28, 17, 85, 28, 48, 1, 3, 5, 1, 19, 9, 18, 29, 37, 1, 6, 3, 1, 1, 11, 7, 2, 6, 5, 8, 3, 1, 5, 3, 11, 8, 11, 8, 6, 20, 30, 2, 28, 1, 54, 1, 27, 3, 23, 1, 2, 3, 25, 5, 26, 28, 23, 21, 65, 41, 19, 6, 21, 1, 1, 28, 1, 25, 18, 3, 12, 1, 2, 2, 3, 1, 1, 1, 4, 1, 1, 1, 7, 2, 1, 1, 1, 1, 2, 1, 1, 1, 1, 1, 1, 1, 1, 1, 1, 15, 2, 1, 1, 2, 1, 1, 1, 1, 1, 1, 1, 1, 69, 2, 1, 3, 6, 6, 1, 4, 1, 3, 22, 20, 5, 23, 1, 4, 17, 6, 4, 3, 21, 3, 1, 23, 5, 1, 2, 16, 5, 5, 2, 11, 10, 25, 2, 30, 33, 4, 18, 1, 1, 3, 1, 24, 3, 17, 2, 1, 2, 2, 4, 1, 10, 4, 9, 4, 2, 1, 1, 21, 2, 1, 3, 20, 2, 6, 20, 28, 15, 13, 17, 11, 1, 5, 18, 3, 1, 1, 17, 9, 8, 9, 3, 6, 1, 15, 3, 1, 6, 1, 1, 37, 1, 1, 1, 1, 7, 1, 1, 11, 3, 5, 7, 2, 1, 9, 1, 8, 11, 1, 2, 8, 2, 3, 5, 7, 1, 8, 2, 5, 1, 19, 3, 3, 21, 1, 1, 1, 1, 26, 1, 1, 1, 4, 22, 1, 4, 1, 2, 11, 1, 6, 1, 1, 1, 18, 7, 2, 20, 2, 4, 2, 20, 1, 7, 20, 1, 1, 4, 1, 21, 1, 1, 3, 1, 3, 19, 1, 1, 3, 23, 1, 27, 1, 5, 21, 1, 2, 13, 13, 1, 24, 47, 8, 10, 32, 17, 12, 1, 3, 4, 16, 3, 1, 1, 2, 1, 2, 1, 1, 1, 21, 1, 1, 1, 1, 4, 3, 1, 60, 10, 1, 1, 8, 1, 7, 1, 4, 3, 1, 4, 21, 1, 11, 1, 8, 4, 20, 4, 1, 27, 25, 1, 1, 3, 25, 26, 2, 25, 3, 1, 23, 5, 1, 23, 1, 3, 18, 6, 28, 1, 9, 18, 6, 21, 1, 30, 24, 3, 2, 2, 5, 14, 4, 3, 2, 1, 50, 10, 3, 6, 2, 1, 12, 7, 2, 1, 1, 1, 1, 1, 1, 1, 5, 16, 1, 1, 2, 8, 6, 3, 1, 1, 1, 1, 1, 2, 2, 17, 4, 1, 32, 1, 9, 65, 3, 1, 1, 4, 1, 15, 1, 1, 2, 3, 1, 6, 1, 1, 11, 1, 6, 3, 6, 1, 1, 2, 8, 18, 1, 1, 1, 1, 8, 2, 14, 1, 3, 3, 2, 21, 1, 1, 5, 20, 1, 1, 1, 18, 7, 1, 1, 1, 5, 20, 1, 2, 26, 1, 15, 12, 27, 1, 4, 20, 4, 6, 23, 28, 28, 2, 10, 15, 1, 2, 10, 1, 1, 19, 28, 28, 24, 4, 23, 8, 31, 24, 1, 12, 1, 73, 16, 1, 5, 13, 8, 27, 55, 2, 1, 25, 28, 1, 24, 1, 2, 1, 12, 15, 9, 1, 16, 9, 1, 1, 20, 1, 1, 1, 1, 1, 1, 23, 2, 21, 1, 27, 28, 28, 2, 4, 23, 2, 1, 23, 9, 24, 28, 4, 52, 24, 5, 1, 4, 14, 28, 22, 1, 3, 1, 1, 70, 2, 21, 1, 25, 1, 19, 28, 28, 10, 19, 55, 1, 14, 13, 26, 2, 3, 20, 1, 1, 1, 1, 1, 29, 1, 2, 28, 28, 25, 5, 33, 20, 85, 45, 5, 8, 27, 1, 35, 12, 26, 2, 47, 20, 5, 1, 1, 4, 1, 1, 1, 6, 11, 3, 4, 10, 1, 5, 1, 1, 70, 9, 24, 23, 5, 26, 3, 24, 3, 1, 1, 24, 3, 28, 18, 6, 4, 21, 31, 1, 20, 4, 27, 27, 1, 1, 3, 3, 1, 18, 1, 2, 4, 18, 3, 3, 1, 1, 22, 1, 3, 23, 1, 1, 3, 23, 1, 1, 6, 4, 16, 1, 1, 4, 2, 5, 1, 1, 4, 1, 1, 1, 1, 5, 1, 1, 1, 1, 2, 8, 7, 2, 1, 1, 3, 1, 21, 1, 1, 45, 1, 2, 1, 16, 1, 1, 4, 1, 1, 1, 2, 1, 1, 1, 11, 1, 1, 2, 1, 1, 2, 8, 4, 6, 2, 12, 1, 1, 1, 1, 1, 4, 1, 10, 13, 1, 10, 10, 14, 14, 11, 3, 1, 12, 9, 1, 1, 4, 13, 28, 9, 2, 17, 11, 1, 14, 14, 1, 25, 2, 1, 27, 4, 28, 23, 31, 23, 6, 24, 4, 2, 1, 20, 1, 7, 48, 7, 1, 1, 19, 2, 26, 9, 16, 11, 1, 1, 1, 3, 1, 2, 5, 2, 1, 13, 1, 1, 1, 1, 1, 1, 1, 1, 1, 1, 3, 1, 1, 1
};

__hifram fixed NODE_WEIGHTS_sizes[N_LEAVES + 1] = {
32, 66, 37, 50, 65, 45, 94, 91, 118, 95, 86, 61, 43, 97, 110
};

__hifram fixed NODE_BIASES[N_LEAVES - 1] = {
0.07484492, 0.012052451, 0.15834871, -0.46124476, -0.2061516, 0.32745114, -0.07082836, -0.3658585, -0.015350965, 0.017080087, -0.35729337, -0.17345965, 0.28412223, 0.015922677, -0.06613766
};

#define LEAF_HIDDEN_WEIGHTS_NNZ 867
__hifram fixed LEAF_HIDDEN_WEIGHTS_data[LEAF_HIDDEN_WEIGHTS_NNZ] = {
1.7794315814971924, 2.173602342605591, 1.6039159297943115, 1.7511682510375977, -1.4360496997833252, 1.5172722339630127, -1.9947408437728882, 1.6294095516204834, -1.7489055395126343, 1.5439132452011108, 1.4979257583618164, 1.6654748916625977, -1.5461424589157104, -1.5884437561035156, 1.7055704593658447, 1.8848315477371216, 1.5261662006378174, 1.709544062614441, 2.06337308883667, 1.666810154914856, 1.4898993968963623, 1.7668423652648926, 1.8024392127990723, 2.15130352973938, 1.78485906124115, 1.4229897260665894, 1.6043058633804321, 1.5519555807113647, 1.5246106386184692, -1.520143985748291, -1.4480661153793335, -1.864549994468689, -1.587132215499878, -1.4145519733428955, -1.4849684238433838, -2.331573247909546, -1.657999873161316, 1.8390859365463257, 1.6297850608825684, -1.575473427772522, 1.8092786073684692, -1.683073878288269, 1.513864517211914, 1.6490387916564941, 1.6977746486663818, 1.7539790868759155, -1.5303800106048584, 1.4996956586837769, 1.4797648191452026, 1.6195940971374512, -1.608859896659851, 1.9516701698303223, 1.7488312721252441, 1.4754494428634644, -1.735751748085022, -1.6009883880615234, -1.7166703939437866, -2.101543664932251, -2.398268699645996, -2.0413990020751953, -1.5067349672317505, -2.0465993881225586, -2.7648184299468994, -2.765355110168457, -2.4729514122009277, 1.6247795820236206, 1.4103246927261353, 1.849320888519287, 1.7590562105178833, -1.4808976650238037, 1.6480563879013062, 1.5637274980545044, 1.5376174449920654, 1.5595204830169678, 1.5662068128585815, 1.6106150150299072, 1.6673296689987183, 1.720107078552246, 1.6431645154953003, 1.6293905973434448, 1.5046104192733765, 1.5186505317687988, 1.4273244142532349, 1.5381567478179932, 1.4118229150772095, 1.6062347888946533, 1.61007821559906, 1.585135817527771, 1.5578218698501587, 1.4789586067199707, 1.5967035293579102, 1.6644853353500366, 1.6565699577331543, 1.5672564506530762, 1.6489843130111694, 1.5605336427688599, 1.4798794984817505, 1.5195274353027344, 1.6580613851547241, 1.5818299055099487, 1.5814193487167358, 1.6461561918258667, 1.5636787414550781, 1.5241773128509521, 1.5699994564056396, 1.5525052547454834, 1.6208927631378174, 1.641781210899353, 1.5655196905136108, 1.5247530937194824, 1.5768994092941284, 1.5528444051742554, 1.6285983324050903, 1.6157233715057373, 1.6129133701324463, 1.6372478008270264, 1.631401777267456, 1.4730019569396973, 1.4097468852996826, 1.462884545326233, 1.3697987794876099, 1.5599424839019775, 1.6053545475006104, 1.603445291519165, 1.6342613697052002, 1.625831961631775, 1.4781579971313477, 1.4185985326766968, 1.4748226404190063, 1.3764655590057373, 1.573372483253479, -1.7477993965148926, -1.4533801078796387, -1.7112762928009033, -1.4567170143127441, -1.7049896717071533, -1.4555639028549194, -1.8704876899719238, -1.9723068475723267, 1.4790865182876587, -1.935579538345337, -2.612417697906494, -1.7529746294021606, -1.9471824169158936, 1.8303661346435547, 2.146005868911743, 2.2169978618621826, 2.271374225616455, 2.2717785835266113, 2.0430963039398193, 1.7705847024917603, 1.8067535161972046, 1.742340326309204, 1.5535686016082764, -1.7375178337097168, -1.4542685747146606, -1.7077275514602661, -1.4561418294906616, -1.8372979164123535, -1.875882863998413, -2.4924657344818115, -1.6134119033813477, -1.8974660634994507, 1.8198093175888062, 2.1761062145233154, 2.2247655391693115, 2.256227493286133, 1.7260323762893677, 1.8121286630630493, 1.810036063194275, -1.7355983257293701, -1.4546462297439575, -1.7402361631393433, -1.4341697692871094, -1.7315027713775635, -1.4544543027877808, 1.6882884502410889, 1.6737117767333984, 1.559151291847229, 1.578362226486206, 1.8927223682403564, 1.548986554145813, 1.7146486043930054, 1.9417277574539185, 1.653036117553711, 2.0644209384918213, 1.9338425397872925, 1.9374730587005615, 1.652289628982544, 1.6489540338516235, 1.4219812154769897, 1.4835621118545532, 1.540234088897705, 1.60756254196167, 2.0218324661254883, 1.6591027975082397, 1.5958555936813354, 1.5901118516921997, 1.5365840196609497, 1.9344323873519897, 1.6114801168441772, 1.4196021556854248, 1.4784587621688843, 1.515909194946289, 1.5919691324234009, 2.0181849002838135, 1.6509275436401367, 1.5913459062576294, 1.5780236721038818, 1.5251890420913696, 1.927402138710022, 1.5995200872421265, 1.8866078853607178, 1.9468212127685547, 1.5782256126403809, 1.6944961547851562, 2.0417873859405518, 1.5302497148513794, 1.6095051765441895, 1.9066766500473022, 1.6534746885299683, 1.4358657598495483, 1.5458589792251587, 1.6866718530654907, 1.668839931488037, 1.5087618827819824, 1.6430306434631348, 1.7332780361175537, 1.4224202632904053, 1.447651743888855, 1.5411596298217773, 1.4715021848678589, 1.7594555616378784, 1.659860372543335, 1.6497358083724976, 1.937735915184021, 2.1370151042938232, 1.954464316368103, 2.4474616050720215, 1.9044857025146484, 1.885165810585022, -2.3384311199188232, 1.31498122215271, 1.773282527923584, 1.4247963428497314, 1.823709487915039, 1.5092437267303467, 1.3889766931533813, 1.3953800201416016, 1.4187208414077759, 1.3008114099502563, 1.6841459274291992, -1.8718043565750122, -1.4082505702972412, -1.6849602460861206, -1.6146365404129028, -1.6065973043441772, -2.128593683242798, 1.9377514123916626, 1.6135797500610352, 1.6519941091537476, -2.262908458709717, -1.5806808471679688, 1.5066165924072266, -1.9291400909423828, 1.6708760261535645, 1.5659594535827637, 1.4466837644577026, 1.8799595832824707, 1.5069239139556885, 1.7009743452072144, 2.5288515090942383, 1.5774766206741333, 1.8529425859451294, 1.6048063039779663, -2.2028398513793945, -1.5596940517425537, -1.737813115119934, -1.8142050504684448, -1.6720449924468994, -1.8261793851852417, 1.9583027362823486, 1.5996923446655273, 1.491396188735962, -1.7374120950698853, -1.5725067853927612, 1.606931209564209, 1.6463786363601685, 1.5950039625167847, 1.5710949897766113, 1.9878379106521606, 1.4761396646499634, 1.9943146705627441, -2.085602045059204, -2.130958080291748, 1.2619564533233643, 1.8726569414138794, 2.2507569789886475, 1.607620358467102, 1.5790901184082031, 1.4660694599151611, 1.5478620529174805, 2.0237810611724854, 2.18800950050354, 1.6802935600280762, 1.5278856754302979, 1.542569637298584, 2.018986940383911, 2.229591131210327, 2.013810396194458, 1.9063527584075928, 2.4779586791992188, 2.2584831714630127, 2.0970473289489746, 1.7403538227081299, 1.6013789176940918, 1.8019806146621704, 2.4019405841827393, 1.9826922416687012, 1.82011079788208, 2.058690071105957, 2.2503175735473633, 1.9585689306259155, 1.4722658395767212, 1.387266755104065, -1.57846200466156, -1.5711528062820435, -1.7014960050582886, 1.7090753316879272, -1.5833877325057983, -1.588508129119873, -1.687828540802002, 1.6296706199645996, 1.9493008852005005, 1.9481165409088135, 1.9700942039489746, 1.671981930732727, -1.805060625076294, -1.6485377550125122, -1.4401668310165405, -1.6614623069763184, 1.7253462076187134, 1.7189431190490723, 1.4933547973632812, 1.8042978048324585, 1.7556464672088623, 1.6034942865371704, 1.6253076791763306, 1.491135597229004, 1.8090142011642456, 1.7390087842941284, 1.5965816974639893, 1.6246248483657837, 1.5057650804519653, 1.807712197303772, 1.6309691667556763, 1.8089524507522583, 1.5427974462509155, 1.6146771907806396, 1.6141196489334106, 1.7751920223236084, 1.7380993366241455, 1.5519014596939087, 1.6020214557647705, 1.636520504951477, 1.524782419204712, 1.8542932271957397, 1.574288010597229, 1.615893006324768, 1.661485195159912, 1.5082908868789673, 1.884454369544983, 1.6106785535812378, 1.7769231796264648, 1.605362892150879, 1.6124132871627808, 1.4572620391845703, 1.7782516479492188, 1.7383025884628296, 1.5399082899093628, 1.593078851699829, 1.6236572265625, 1.508652687072754, 1.8272062540054321, 1.7641915082931519, 1.611028790473938, 1.626799464225769, 1.4843138456344604, 1.7920281887054443, 1.7533081769943237, 1.5662628412246704, 1.603566288948059, 1.628855586051941, 1.4963988065719604, 1.8623930215835571, 1.5368216037750244, 1.5985007286071777, 1.6845782995224, 1.4864519834518433, 1.8664164543151855, 1.5531573295593262, 1.8099298477172852, 1.6063047647476196, 1.797429084777832, 1.4316576719284058, 1.6952165365219116, 2.085230827331543, 1.9001774787902832, 1.6451077461242676, 1.950110912322998, 1.6892679929733276, 1.6138702630996704, 1.6758828163146973, 1.5928785800933838, 1.720931887626648, 1.6600505113601685, 1.9166204929351807, 1.486342430114746, 1.5148110389709473, 1.5653276443481445, 1.7215505838394165, 1.7633992433547974, 1.4475055932998657, 1.7857619524002075, 1.5093061923980713, 1.883197546005249, 1.8201422691345215, 1.5092796087265015, 2.1019816398620605, 1.6137319803237915, 1.612823247909546, 1.8356932401657104, 1.5537132024765015, 1.6846075057983398, 1.5309464931488037, 1.942663311958313, 1.8326830863952637, 1.679404854774475, 2.006985902786255, 1.8034203052520752, 1.7106726169586182, 1.762599229812622, 1.5991652011871338, 1.6791096925735474, 1.9692389965057373, 1.5366015434265137, 1.5585423707962036, 1.607345700263977, 1.8005168437957764, 1.7032909393310547, 1.6058896780014038, 1.8832571506500244, 2.0074329376220703, 1.6538059711456299, 2.2248756885528564, 2.139249086380005, 1.9317166805267334, 1.497395396232605, 1.7884076833724976, 1.586380124092102, 1.592895269393921, 1.945505142211914, 1.6783690452575684, 1.5062432289123535, 1.5301055908203125, 1.494574785232544, 1.8521885871887207, 2.108536958694458, 1.5423849821090698, 1.5490870475769043, 1.9554353952407837, 1.7025177478790283, 1.9626210927963257, 1.8652284145355225, 2.1860134601593018, 1.6801555156707764, 1.774248719215393, 1.9405030012130737, 2.2321345806121826, 1.8216723203659058, 2.2171823978424072, 1.7663993835449219, 1.9631468057632446, 1.66206693649292, 1.8367551565170288, 1.7045265436172485, 1.710503339767456, 1.7317724227905273, 1.663167119026184, 1.4566727876663208, 1.7265688180923462, 1.6542373895645142, 1.8361033201217651, 1.4823914766311646, 1.6475999355316162, 2.0566585063934326, 1.9562937021255493, 1.6247749328613281, 1.8889120817184448, 1.6749308109283447, 1.644269347190857, 1.7552253007888794, 1.5314570665359497, 1.4521300792694092, 1.7392256259918213, 1.3974207639694214, 1.4822332859039307, 1.5179331302642822, 1.582167148590088, 1.5557820796966553, 1.4087084531784058, 1.7981348037719727, 1.7641713619232178, 1.4615421295166016, 2.140994071960449, 2.0779640674591064, 2.4264612197875977, 1.796128749847412, 1.670262098312378, 1.8786289691925049, 1.5366071462631226, 1.7285382747650146, 2.146730661392212, 2.005293846130371, 1.4065759181976318, 1.6710026264190674, 1.9657926559448242, 1.729182481765747, 1.7041922807693481, 1.7868666648864746, 1.676269292831421, 1.7793091535568237, 1.565228819847107, 1.8330188989639282, 1.4573744535446167, 1.524825930595398, 1.5935760736465454, 1.618155837059021, 1.655341625213623, 1.37345552444458, 1.4213180541992188, 1.395904779434204, 1.7734445333480835, 1.7407864332199097, 2.021249532699585, 1.6512519121170044, 1.4920604228973389, 1.7801086902618408, 1.714969277381897, 1.8119127750396729, 1.6740319728851318, 2.045508861541748, 1.8868770599365234, 1.7315160036087036, 1.9871392250061035, 1.7731093168258667, 1.6951810121536255, 1.786131739616394, 1.6380409002304077, 1.651526689529419, 1.919907569885254, 1.5665794610977173, 1.6391078233718872, 1.762387752532959, 1.6576951742172241, 1.5645270347595215, 1.837700366973877, 1.9828704595565796, 1.6257411241531372, 2.206486940383911, 1.753170371055603, 2.2119970321655273, 1.5943604707717896, 2.356191873550415, 1.7865426540374756, 1.6209628582000732, 1.8189066648483276, 1.456000566482544, 1.7179675102233887, 2.1191749572753906, 1.9536012411117554, 1.664772629737854, 1.9715592861175537, 1.7126085758209229, 1.6492483615875244, 1.7081148624420166, 1.5911401510238647, 1.638729453086853, 1.9060052633285522, 1.496501088142395, 1.5247124433517456, 1.5633758306503296, 1.7045612335205078, 1.7627108097076416, 1.4566514492034912, 1.461904764175415, 1.495909571647644, 1.8935248851776123, 1.773496150970459, 1.4913097620010376, 2.120569944381714, 1.585311770439148, 1.6027859449386597, 1.9675219058990479, 1.8999632596969604, 1.4962321519851685, 1.9908621311187744, 1.9844785928726196, 1.771775484085083, 2.0435383319854736, 1.5645020008087158, 1.8527101278305054, 1.5379891395568848, 1.926016926765442, 2.1751153469085693, 2.0205750465393066, 1.8568183183670044, 1.7489473819732666, 2.257957696914673, 1.7588496208190918, 1.9151359796524048, 2.1008665561676025, 2.1984825134277344, 1.9342339038848877, 1.9171007871627808, 1.760172724723816, 1.4100123643875122, 1.718637228012085, 1.5969384908676147, 1.5090062618255615, 1.54267156124115, 1.826181173324585, 1.5962693691253662, 1.56077241897583, 1.6456141471862793, 1.4549239873886108, 1.7005324363708496, 1.5868605375289917, 2.062898874282837, 2.2837443351745605, 2.589853525161743, 1.7427122592926025, 1.679336428642273, 1.5840312242507935, 1.5884816646575928, 1.9456511735916138, 1.607964277267456, 1.5631543397903442, 1.9626808166503906, 1.712608814239502, 1.6434214115142822, 1.6136186122894287, 1.584578514099121, 1.976685643196106, -1.7947497367858887, -1.8721530437469482, -1.6543878316879272, 1.8709914684295654, 1.664669156074524, 1.716354489326477, 1.8511451482772827, 1.8205537796020508, 1.6554467678070068, 1.6586370468139648, 1.8504356145858765, -1.7691725492477417, -2.417506217956543, -3.028764247894287, -2.8514223098754883, 1.5933440923690796, 1.6230791807174683, 1.504638433456421, 1.501159429550171, 1.587542176246643, 1.505726933479309, 1.7951343059539795, 2.0836546421051025, 1.968851923942566, 1.6228463649749756, 1.5512762069702148, 1.7352324724197388, 1.9854559898376465, -2.36100435256958, 2.4030215740203857, 2.155816078186035, 2.317721366882324, 2.1752469539642334, 1.6886229515075684, 1.774132251739502, 1.7366151809692383, 1.8535455465316772, 1.4697438478469849, -2.374124765396118, 1.948526382446289, 1.738898515701294, 1.711108684539795, 1.80856192111969, 1.6609286069869995, 1.8648481369018555, 1.9058455228805542, 1.5866135358810425, 1.8743035793304443, 1.7037931680679321, 1.7699538469314575, 1.891191840171814, 1.6608235836029053, 1.7075508832931519, 1.557883381843567, 1.543835997581482, 1.7855720520019531, 1.7102227210998535, 1.863783359527588, 1.6315048933029175, 1.7858552932739258, 1.7302998304367065, 1.6568021774291992, -1.585951328277588, -1.7538191080093384, -1.690722942352295, 1.5272222757339478, 1.940217137336731, 2.5586230754852295, 1.5125902891159058, 1.7970095872879028, 2.1684067249298096, 1.4471805095672607, 1.9576163291931152, -1.4718691110610962, 1.5733933448791504, -1.8135850429534912, -1.5672260522842407, 1.5647945404052734, -1.9708645343780518, 1.5968984365463257, 2.086453676223755, 1.4197970628738403, 2.0067975521087646, 2.159569025039673, 1.822624683380127, 1.8075499534606934, 1.6690435409545898, 1.4559096097946167, 1.471297025680542, 2.1551363468170166, 2.2544238567352295, 1.7500261068344116, 2.0047550201416016, 1.9531697034835815, 1.744931936264038, 1.7196776866912842, 1.8197195529937744, 1.651516079902649, 1.8630986213684082, 1.9165418148040771, 1.5881202220916748, 1.54664945602417, 1.6995047330856323, 1.7620590925216675, 1.7842462062835693, 1.5555177927017212, 1.4807199239730835, 1.7224090099334717, 1.7649425268173218, 1.8571751117706299, 1.6085296869277954, 1.6445475816726685, 1.58084237575531, 1.5674407482147217, 1.8891242742538452, 1.43380606174469, 1.5838165283203125, 1.6606649160385132, 1.885469913482666, 1.5144504308700562, 1.9448531866073608, 1.5047391653060913, 1.5038477182388306, 1.5595241785049438, 1.6334989070892334, 1.4232593774795532, 1.4182113409042358, 1.6123042106628418, 1.649965524673462, 1.5279783010482788, 1.7329269647598267, 1.7390334606170654, 1.547565221786499, 1.4617750644683838, 1.60959792137146, 1.6303225755691528, 1.4116027355194092, 1.684814453125, 1.8118196725845337, 1.7501417398452759, 1.63502836227417, 1.7161707878112793, 1.433156967163086, 2.1918301582336426, 1.754514217376709, 1.5864487886428833, 1.5111292600631714, 1.8117235898971558, 1.708757758140564, 1.8645089864730835, 1.627927541732788, 1.7859880924224854, 1.6209874153137207, 1.5607872009277344, 1.4583394527435303, -1.777231216430664, 1.6228277683258057, 1.6936815977096558, 1.5064946413040161, 1.5428770780563354, 1.5751227140426636, 1.6904754638671875, 1.6162272691726685, 1.7485235929489136, 1.7986050844192505, 2.0409324169158936, 1.963055968284607, 1.6177632808685303, 2.1131350994110107, 1.9175788164138794, 1.8270630836486816, 1.5829639434814453, 1.9096076488494873, 2.0601608753204346, 1.937028169631958, 1.48916757106781, 1.5472041368484497, 1.5826590061187744, 1.7928287982940674, 1.555801510810852, 1.7253484725952148, 1.624226689338684, 1.8848310708999634, 1.524084210395813, 1.6740049123764038, 1.5757097005844116, 1.654543399810791, 1.8623329401016235, 1.7232171297073364, 2.114252805709839, 1.6661686897277832, 1.864583969116211, 1.611785888671875, 1.5892373323440552, 1.624738097190857, 2.1304595470428467, 1.5774564743041992, 1.8479806184768677, 1.6861133575439453, 1.577561378479004, 1.6737053394317627, 1.8733460903167725, 1.7564570903778076, 1.660062551498413, 1.6654566526412964, 1.6748833656311035, 1.5379681587219238, 1.6532357931137085, 1.5447684526443481, 1.6608984470367432, 2.0216333866119385, 1.5164167881011963, 1.7881748676300049
};

__hifram fixed LEAF_HIDDEN_WEIGHTS_offset[LEAF_HIDDEN_WEIGHTS_NNZ] = {
353, 28, 521, 323, 16, 38, 410, 238, 347, 390, 701, 207, 440, 108, 48, 41, 1, 706, 1, 28, 55, 28, 23, 1, 4, 24, 33, 142, 452, 80, 1, 29, 1, 1, 28, 1, 755, 243, 3, 913, 326, 458, 196, 784, 28, 563, 167, 172, 26, 43, 373, 266, 29, 2, 10, 68, 1, 1, 1, 1, 28, 1, 1, 1, 28, 882, 28, 1, 1, 48, 268, 108, 90, 45, 10, 17, 2082, 1, 78, 1, 26, 2, 90, 45, 10, 17, 2082, 108, 90, 28, 17, 10, 17, 11, 503, 198, 28, 17, 10, 17, 11, 1287, 108, 90, 45, 10, 17, 514, 108, 90, 45, 10, 17, 1298, 1, 78, 1, 28, 90, 45, 10, 17, 2082, 1, 78, 1, 28, 90, 45, 10, 17, 342, 133, 651, 133, 651, 133, 1351, 1, 8, 19, 1, 27, 28, 6, 1, 27, 1, 27, 1, 28, 27, 35, 26, 605, 133, 651, 133, 2920, 27, 1, 27, 28, 6, 28, 1, 27, 29, 27, 35, 2199, 133, 651, 133, 651, 133, 297, 27, 25, 27, 1, 140, 2, 1, 23, 1, 1, 1, 25, 1, 2955, 28, 43, 27, 35, 1, 1, 2, 1, 26, 1, 619, 28, 43, 27, 35, 1, 1, 2, 1, 26, 1, 524, 1, 78, 1, 89, 3751, 1, 168, 1, 58, 31, 526, 168, 59, 31, 526, 94, 28, 46, 59, 31, 473, 1, 25, 1, 1, 25, 27, 1, 18, 6, 26, 27, 80, 28, 34, 1, 25, 1, 435, 305, 724, 66, 231, 252, 496, 184, 211, 218, 175, 3, 122, 280, 404, 27, 3, 1274, 30, 10, 136, 134, 237, 28, 143, 270, 22, 27, 27, 1, 311, 483, 3, 1312, 27, 215, 30, 107, 77, 28, 1, 24, 437, 1, 111, 118, 1, 1, 4, 1, 13, 8, 1, 1, 1, 1, 24, 1, 1, 1, 1, 24, 1, 1, 21, 4, 1, 1, 1, 25, 1, 1, 26, 1, 335, 26, 1, 86, 102, 27, 27, 37, 1, 27, 1, 1354, 514, 30, 4, 31, 965, 1, 56, 141, 587, 28, 1, 27, 141, 2939, 28, 1, 27, 141, 561, 26, 3, 25, 1, 168, 587, 3, 25, 1, 27, 141, 199, 332, 56, 56, 141, 561, 26, 28, 1, 27, 141, 587, 3, 25, 1, 27, 141, 1371, 28, 1, 27, 141, 587, 3, 25, 1, 27, 141, 199, 332, 56, 56, 141, 880, 1, 26, 1, 1, 25, 1, 1, 26, 1, 1, 1, 1, 2, 1, 21, 1, 1, 2, 1, 24, 1, 2, 23, 2, 1, 25, 1, 1, 151, 29, 1194, 26, 1, 26, 1, 1, 26, 1, 1, 1, 1, 2, 22, 1, 1, 2, 1, 24, 1, 27, 1, 25, 1, 1, 36, 554, 27, 27, 1, 26, 1, 1, 1, 1, 2, 22, 1, 1, 3, 22, 1, 1, 1, 25, 1, 1, 1, 25, 1, 1, 25, 95, 29, 2, 20, 8, 1, 18, 1175, 1, 26, 1, 1, 25, 1, 1, 26, 1, 1, 1, 1, 2, 22, 1, 1, 2, 1, 24, 1, 27, 1, 25, 1, 1, 36, 183, 371, 26, 1, 1, 25, 1, 1, 1, 25, 1, 1, 1, 1, 2, 1, 21, 1, 1, 2, 1, 24, 1, 1, 1, 25, 1, 25, 2, 369, 2572, 1, 26, 1, 26, 1, 1, 26, 1, 1, 1, 1, 2, 22, 1, 3, 1, 24, 1, 27, 1, 25, 1, 1, 35, 1, 162, 21, 371, 26, 1, 1, 25, 1, 1, 26, 1, 1, 1, 1, 2, 22, 1, 1, 2, 1, 24, 1, 1, 1, 25, 1, 25, 1, 1, 462, 1, 1, 26, 57, 420, 1, 193, 1620, 1, 1, 1, 26, 28, 476, 27, 197, 27, 1, 1, 27, 28, 481, 1, 193, 109, 675, 27, 1, 755, 1, 27, 1, 756, 85, 699, 1622, 27, 25, 3, 25, 704, 1, 26, 28, 729, 27, 28, 481, 194, 838, 27, 28, 639, 15, 350, 160, 27, 1, 1, 26, 1, 26, 1, 243, 2, 1, 1, 140, 1, 393, 1, 1, 3, 24, 1, 1, 1, 1, 27, 1, 189, 505, 28, 784, 1, 1, 26, 1, 1, 2, 219, 265, 24, 1, 1, 23, 1, 2, 413, 319, 24, 28, 382, 14, 1, 14, 1, 1, 194, 1, 1, 1, 6, 1, 172, 462, 166, 128, 464, 1, 469, 44, 29, 688, 96, 32, 467, 91, 28, 170, 429, 149, 30, 29, 745, 1, 26, 1, 27, 26, 28, 18, 28, 25, 921, 397, 24, 1, 1, 23, 1, 2, 413, 323, 1, 27, 28, 55, 28, 646, 27, 28, 28, 27, 28, 528, 1, 28, 61, 1, 165, 28, 27, 563, 27, 1, 8, 130, 618, 27, 1, 8, 19, 28, 55, 28, 2970, 1, 35, 130, 55, 563, 1, 35, 130, 566, 27, 6, 20, 8, 19, 8, 19, 28, 28, 27, 28, 175, 1227, 1, 35, 130, 55, 563, 1, 35, 659, 39, 2, 22, 4, 3, 19, 1, 8, 27, 1, 129, 224, 375, 19, 1, 8, 18, 9, 326, 3, 53, 15, 14, 2, 670, 27, 3, 25, 28, 611, 90, 27, 3, 3920, 53, 15, 14, 2, 700, 68, 16, 1481, 3, 53, 31, 2238, 27, 3
};

__hifram fixed LEAF_HIDDEN_WEIGHTS_sizes[N_LEAVES + 1] = {
70, 0, 61, 45, 75, 90, 59, 0, 201, 53, 0, 0, 101, 82, 0, 30
};


__hifram fixed LEAF_HIDDEN_BIASES[N_LEAVES][LEAF_WIDTH] = {
1.415738, 0.71518755, 0.8952968, 0.59941375, 0.8995044, 0.9440484, 1.7578349, 1.8295215, 0.70237553, 1.0625817, 1.1927736, 0.9277317, 1.0336064, 0.9681964, 1.7857705, 0.46295413, 1.2816478, -0.028628148, -0.031003134, 1.4646513, -0.022510126, -0.03112726, 1.1791998, 1.1563089, -0.020617658, 1.3691949, 1.38578, -0.025484659, 1.4166152, -0.051811896, -0.08947177, 1.3921466, 1.6234837, 1.7142293, 1.7224905, -0.007957172, 1.4793048, 1.631585, 1.7044668, -0.06585129, -0.04566277, -0.024942573, 1.4413841, -0.060576532, -0.031144135, 1.6405274, 1.5467808, 1.6444188, 0.88607687, -0.05384905, -0.047197144, -0.036037188, 1.7698203, 1.713481, 1.0715923, -0.04143121, -0.026841408, -0.0071550645, -0.06403966, 1.306924, 1.3907623, 1.4480205, 0.13380504, -0.034437723, 0.9791325, 0.7112543, 0.3811641, 0.6292047, 0.7600299, 0.782522, 0.20399229, 0.50725996, 0.5039202, 0.58604646, 0.59627384, 0.63747936, 1.5961317, 0.3993278, 0.64345294, 0.8877008, -0.0023897716, 1.7904596, 1.7728697, -0.02371109, -0.023241125, -0.044305712, 1.7993048, 1.738452, 1.8256571, 1.8315549, 1.7192364, 1.8222061, -0.03552014, 1.7603987, 1.7861229, 1.7960522, -0.021320311, 1.2988561, -0.035282817, 1.3971945, 1.3712553, -0.047671918, 1.4013367, 1.3144026, -0.037152167, -0.015033502, -0.027834507, 1.4969157, 1.3191488, -0.023465516, -0.0038920112, -0.048361067, 1.6041286, 1.4053133, -0.010355655, 1.293509, 1.2492672, 1.3607647, 1.3317734, 1.3687705, 1.4628388, 1.427308, -0.035824627, 1.3611819, 1.3050113, 1.3059554, 1.3394277, 1.3076725, 1.2503998, 1.0557739, 1.1515304, 0.908578, 1.3517088, 0.90371406, 0.76055175, 1.3916637, 0.7428604, 0.56627315, 0.70233136, 1.4038095, 0.339018, 0.5345778, 1.4615456, 0.8261101, 0.68767864, 0.70475364, 0.5475114, 0.5971381, 0.6941541, -0.0008711745, -0.040454138, -0.026264785, 0.5009584, 0.573771, 0.7701856, -0.0048847543, 0.52836126, 0.6216878, 0.64692575, 0.64898443, 1.339535, 1.3375854, 1.3617389, -0.005391291, -0.04958382, -0.043572143, -0.023415584, 1.343166, 1.3308839, -0.007204383, 1.313262, -0.013235121, -0.019462029, 1.2779671, -0.03488314, -0.025262028
};

#define LEAF_OUTPUT_WEIGHTS_NNZ 732
__hifram fixed LEAF_OUTPUT_WEIGHTS_data[LEAF_OUTPUT_WEIGHTS_NNZ] = {
-0.9970613718032837, 0.583283543586731, 0.4076974391937256, -2.8046071529388428, 0.43515169620513916, -0.5355615615844727, -2.475806951522827, 0.599093496799469, -1.3335320949554443, -0.7464620471000671, -1.2437454462051392, -1.4567683935165405, -1.4455900192260742, -0.9826675057411194, -0.9417173266410828, -0.6778393983840942, -1.1680573225021362, -1.1893110275268555, -0.8498811721801758, -0.8209579586982727, -0.9369566440582275, -1.633010745048523, -1.11629319190979, -1.0517704486846924, -0.5222916007041931, -0.541138231754303, -0.8632062673568726, -2.5364532470703125, -0.9869198799133301, -0.8203204274177551, -2.8129022121429443, 0.945594310760498, 1.4694393873214722, 1.5727711915969849, -1.9687936305999756, 1.0400062799453735, 0.9379878640174866, -1.7061766386032104, 0.9566240310668945, -0.9070973992347717, 0.6912152767181396, -1.0211948156356812, -1.0495463609695435, 1.0798463821411133, 1.5219014883041382, -1.5616461038589478, -2.50905442237854, -1.430537223815918, -0.6510544419288635, -0.8480667471885681, -0.7378624677658081, -0.9988491535186768, -0.4974973499774933, -1.1028591394424438, -1.1719794273376465, -2.9429285526275635, -1.8966269493103027, -1.1516109704971313, -0.8100905418395996, -1.2281790971755981, -1.4555995464324951, -0.7826398015022278, -4.783980369567871, -0.589668869972229, -0.4926380515098572, 0.6346424221992493, -0.8206954002380371, -0.9042602777481079, 1.6038274765014648, 2.7721188068389893, 1.3602885007858276, 0.5766057968139648, 0.8168883919715881, 0.889310359954834, 1.332748532295227, 3.696917772293091, -1.667147159576416, -0.5518344044685364, -1.1815608739852905, -0.6519426703453064, -0.4733690321445465, 1.097314715385437, -0.9186136722564697, -0.8738502860069275, -0.595887303352356, 1.5730159282684326, 0.7218896150588989, -0.6565595269203186, -0.5494812726974487, -0.7518550753593445, -0.8043490052223206, -0.53632652759552, -0.5431550145149231, -1.536556363105774, -1.1870733499526978, -1.1447142362594604, -1.1533173322677612, -1.0417118072509766, -0.7760898470878601, -0.5639198422431946, -2.7015914916992188, -0.8367788195610046, 0.6857824921607971, -1.9936344623565674, 1.4276068210601807, 1.2554680109024048, 0.7795887589454651, -2.0065605640411377, -1.4383248090744019, 1.2204914093017578, 1.1650632619857788, -1.1529529094696045, -0.5001533627510071, 0.9964779019355774, -1.66165030002594, 1.098550796508789, -1.007440447807312, -0.597312867641449, -0.5921162962913513, -0.9480326771736145, -1.1501216888427734, -1.0580180883407593, -1.1126954555511475, -1.0500471591949463, -0.7376790642738342, -1.5156123638153076, -0.5969055891036987, -0.5284826159477234, -0.5725516080856323, -0.5646380186080933, -0.5265783071517944, -0.527765154838562, -0.6392417550086975, -0.7215174436569214, -0.7330533266067505, -0.612785279750824, -0.6078243851661682, 0.5436322093009949, 0.6036111116409302, 0.5392672419548035, 0.5405614376068115, 0.5430765748023987, 0.4964100122451782, 0.6101446747779846, 0.5013495683670044, 0.4981532394886017, 0.6245094537734985, 0.6178280711174011, 0.5672407150268555, 0.6003391742706299, 0.6352819204330444, 0.630508303642273, 0.5601087212562561, 0.5590217709541321, 0.5719044804573059, 0.5734765529632568, -0.9472255110740662, -0.8828336596488953, -1.0535613298416138, -1.1014516353607178, -0.9408582448959351, -0.9384638071060181, -0.9169661998748779, -0.9136900305747986, -0.5894278883934021, -0.5628737211227417, -0.5616708993911743, -0.5607185363769531, -1.0119671821594238, -1.1611149311065674, -1.0067346096038818, -0.9914246797561646, -1.0081161260604858, -1.006521224975586, -1.1273729801177979, -1.1253159046173096, 0.516093909740448, 0.5731204748153687, -0.565551221370697, -0.8830352425575256, -0.9982268214225769, -1.0028150081634521, -0.8935213685035706, -0.8785243034362793, -1.0017567873001099, -0.9142860174179077, -0.8807006478309631, -0.7697505354881287, -0.8794174194335938, -1.0518689155578613, -0.9135884642601013, -0.9082822203636169, -1.2865996360778809, -1.0473949909210205, -0.9120119214057922, -1.212607741355896, -1.0407744646072388, -1.0374313592910767, -1.038304090499878, 0.716558039188385, 0.7074445486068726, 0.7082126140594482, 1.0238341093063354, 0.7215467691421509, 0.7033631801605225, 1.044129490852356, 0.723259449005127, 0.6444125771522522, 0.7232596278190613, -0.9563326835632324, -0.8972830772399902, -0.8951313495635986, -1.3663322925567627, -0.9589952826499939, -0.8984115123748779, -1.1150076389312744, -0.9441616535186768, -0.982627809047699, -0.9441218972206116, -0.46392109990119934, -0.5160143375396729, -0.5262925028800964, -0.9193140864372253, -0.46236467361450195, -0.5197296738624573, -0.9857253432273865, -0.46331217885017395, -0.45914578437805176, -0.46466007828712463, -0.4353250563144684, -0.45664170384407043, -0.8317538499832153, -0.868818998336792, -0.7580563426017761, 0.94538813829422, 0.939717173576355, 0.6224803924560547, 0.8202928304672241, 0.7954397797584534, 0.8962961435317993, -0.609054446220398, -0.7559857964515686, -0.47076019644737244, -0.6025301218032837, -0.5771182775497437, -0.5315460562705994, 0.612226665019989, -0.7751187682151794, -0.7669339179992676, 0.5923683643341064, 1.0154203176498413, 0.6040427684783936, 0.6008859872817993, -0.5754932165145874, -0.7205431461334229, -0.44790950417518616, -0.4485225975513458, -0.6537205576896667, -0.5330120921134949, -0.5657961964607239, -0.5587411522865295, -0.6140923500061035, -1.0675517320632935, -1.0736463069915771, -1.082481026649475, -1.2276971340179443, -1.1585841178894043, -1.1707961559295654, -1.1658896207809448, -1.1638405323028564, -0.9853963255882263, -1.0691795349121094, -0.9064761400222778, -0.8925408124923706, -0.5297098159790039, -0.6518861651420593, 0.6917248368263245, 0.5076940059661865, -0.6837003827095032, -0.6857432126998901, -0.7988865375518799, -0.6101822257041931, -0.6266199946403503, -0.4871097207069397, -0.9661933183670044, -1.0852444171905518, -0.5685393214225769, -0.43950971961021423, -1.6138689517974854, -0.6148996949195862, -0.5107236504554749, -0.6040926575660706, -0.739439070224762, -1.2757275104522705, -0.6169664263725281, -1.3014081716537476, -1.2607829570770264, -0.8526617288589478, -0.5076379776000977, -1.2651128768920898, -0.44910353422164917, -1.2556644678115845, -0.9891984462738037, -1.4448668956756592, 1.04935622215271, 1.3732342720031738, -1.3406771421432495, -1.5338995456695557, -1.136118769645691, -1.543734073638916, -2.5735294818878174, -0.503482460975647, -1.6701427698135376, 1.316468596458435, 0.6289758086204529, 0.4236701726913452, 0.7173789143562317, 1.2747894525527954, -0.8996644020080566, -0.7895478010177612, -0.809037983417511, -1.185721516609192, -0.5057302713394165, -1.2762162685394287, -0.5030301213264465, -0.6544891595840454, -1.3104915618896484, -0.8414456844329834, -0.4338560700416565, -0.8545008301734924, 0.5114787220954895, -0.6905961036682129, -0.9475632309913635, -0.637843668460846, -0.5274336934089661, 1.7400836944580078, 2.207404375076294, 0.6777970194816589, 2.0546820163726807, -1.4327346086502075, 1.7846500873565674, 0.5773283839225769, -2.4957542419433594, 1.3361104726791382, -0.8071507811546326, 0.6641692519187927, -0.903889536857605, -0.9105483293533325, -0.5352056622505188, -0.9315969347953796, -1.5845561027526855, 1.243273138999939, 0.5819113850593567, 1.1821057796478271, 1.5948346853256226, -1.2600551843643188, 1.61613130569458, 1.1734696626663208, -1.372870922088623, -1.8480263948440552, -1.8013633489608765, -0.7558489441871643, -0.6588401198387146, -0.6085469126701355, -0.6067851781845093, -0.5882259607315063, -0.6568291187286377, -0.5504171848297119, -0.5941770076751709, -0.6046116352081299, -0.5862568020820618, -0.6243292689323425, -1.7023680210113525, -1.647547721862793, -1.64902925491333, -1.6670225858688354, -1.7843968868255615, -1.6746838092803955, -1.6822936534881592, -1.6697007417678833, -1.638327717781067, -1.7467314004898071, -1.6481965780258179, 0.6039421558380127, 0.5829495787620544, 0.602225124835968, 0.5742480754852295, 0.6109365224838257, 0.7142197489738464, 0.5717225074768066, 0.6168988943099976, 0.5754756331443787, 0.6145828366279602, 0.699389636516571, -0.5781821608543396, -0.6009696125984192, -0.6043341159820557, -0.5967613458633423, -0.5248158574104309, -0.601179301738739, -0.5817385315895081, -0.6116911768913269, -0.5276783108711243, -2.1143345832824707, -2.2228734493255615, -2.218458890914917, -2.292741537094116, -2.158864736557007, -2.168384075164795, -2.257413148880005, -2.2541449069976807, -2.234001874923706, -2.1560251712799072, -2.1759676933288574, -1.7562432289123535, -1.853912115097046, -1.8575823307037354, -1.7567585706710815, -1.904604434967041, -1.8603730201721191, -1.765466332435608, -1.8649837970733643, -1.8440021276474, -1.8906888961791992, -1.8481380939483643, 0.7444294691085815, 0.713782787322998, 0.6999731659889221, 0.8043355345726013, 0.6716673374176025, 0.5912114381790161, 0.7600100636482239, 0.700149655342102, 0.7260118126869202, 0.686037540435791, 0.6237949728965759, -0.9420701861381531, -1.0064438581466675, -1.1302186250686646, -1.0713900327682495, -0.8800961971282959, -1.1824184656143188, -0.9346910119056702, 0.4140206277370453, 0.41948240995407104, 0.4212709069252014, 0.39448198676109314, 0.38552579283714294, 0.5881742835044861, 0.6054983735084534, 0.5836729407310486, -1.5065127611160278, -1.4365109205245972, -1.1324665546417236, -1.507670521736145, -1.618715524673462, -1.4360978603363037, -1.5077791213989258, -0.5042715072631836, -0.6364873051643372, -0.49151113629341125, -0.7825474739074707, -1.1421061754226685, -0.8738694190979004, -1.2902475595474243, -0.7286324501037598, -1.283112645149231, -0.835427463054657, 0.4709043502807617, 0.6305924654006958, 0.4345968961715698, -0.7325065732002258, -0.5990496277809143, -0.7216031551361084, -0.6146846413612366, -0.7887600660324097, -0.6126329898834229, -0.6991277933120728, -1.704063892364502, -0.5427131652832031, -0.8929108381271362, -0.603815495967865, -1.2879420518875122, -1.6725616455078125, -1.486741542816162, -1.6548051834106445, -1.633264422416687, -1.5732356309890747, -1.5060337781906128, -1.18501615524292, -1.343140959739685, -1.325010895729065, -1.4855096340179443, -1.3792861700057983, -1.586705207824707, -1.3738585710525513, -0.6576949954032898, -0.8083415627479553, -0.4787938892841339, -0.6104418039321899, -0.5819057822227478, -0.5806905627250671, -0.8376741409301758, -0.5280510783195496, -0.4712859094142914, -0.6034844517707825, -0.4819094240665436, -0.4876670837402344, -0.5521312952041626, -0.46507108211517334, 0.5008059740066528, 0.4321182072162628, 0.5590442419052124, 0.7007800340652466, 0.5585994124412537, -1.3105100393295288, -1.1717132329940796, -1.0626459121704102, -1.3580389022827148, -1.1099765300750732, -0.9626709818840027, -0.44674980640411377, -0.9885828495025635, -1.4092546701431274, -1.1919872760772705, -1.244117259979248, -1.2305803298950195, -1.2469172477722168, 0.7590559720993042, 0.570902943611145, 0.7956082820892334, 0.6000849604606628, 0.7341427803039551, -2.575396776199341, -0.7817835211753845, 1.5450928211212158, 0.7950359582901001, 0.7275023460388184, -1.081344723701477, 1.4354101419448853, 0.6732228398323059, 0.8490629196166992, 1.393857479095459, 0.5721591114997864, -0.549429714679718, 0.8013286590576172, 0.6064611077308655, 0.5842730402946472, -0.9021167755126953, -0.5117917060852051, 0.6560304164886475, -0.9804960489273071, 0.5053117275238037, 1.037899136543274, 0.9798043966293335, 0.8337944149971008, 1.141378402709961, 0.9146975874900818, -0.5443511605262756, -1.500827670097351, -1.290783166885376, 1.3545106649398804, -1.9135711193084717, 0.6259267330169678, 0.8437151908874512, -0.7313758730888367, -1.1466848850250244, -1.0302464962005615, 0.6518746018409729, -0.7129743099212646, -1.1750788688659668, 0.663901150226593, -0.501486599445343, -0.530910074710846, -0.8977444767951965, -0.9076353311538696, -1.0813788175582886, -0.5541325211524963, -0.5318131446838379, 0.48424097895622253, -0.5041276216506958, -1.1127070188522339, -0.5751190185546875, -1.1903139352798462, -0.7500247359275818, -0.5054647922515869, 0.6243287920951843, -1.4840044975280762, 0.8830001354217529, 0.43734630942344666, -0.7635210156440735, 1.7503546476364136, 1.0221128463745117, 0.7309475541114807, 0.6301516890525818, -1.6512757539749146, -2.079127311706543, 1.0126988887786865, -0.9573031663894653, 1.106292963027954, 0.7910293340682983, -1.6103707551956177, 1.1857497692108154, 0.8430892825126648, -1.6977355480194092, -2.1105053424835205, -0.8013654947280884, -1.5329864025115967, -1.2382516860961914, -1.3496980667114258, -1.7388463020324707, -2.4868927001953125, -0.8046302199363708, -1.2561061382293701, -2.342550039291382, -1.0618871450424194, -0.7929905652999878, -2.3395638465881348, -1.2209442853927612, -0.5166643261909485, -0.5655476450920105, 0.7431806921958923, -0.7391276359558105, -0.6473478674888611, -0.8153792023658752, -0.4310919940471649, -1.484283208847046, -1.2428339719772339, -0.945894718170166, -0.8961288332939148, -0.9856750965118408, -0.9137932062149048, -0.7571495771408081, -1.1607671976089478, -0.7533117532730103, -0.5375083684921265, -0.5821441411972046, -0.6585686802864075, -0.9669682383537292, -0.5830031633377075, 0.9919523596763611, 1.079727053642273, 0.44244617223739624, 0.8195355534553528, 0.9288908839225769, 0.738153338432312, 0.6637964844703674, 0.9764400124549866, 0.7422551512718201, 0.6693882346153259, 0.5745022892951965, -1.4122599363327026, -1.3229575157165527, -0.49065151810646057, -1.1358668804168701, -1.4319552183151245, -0.5668253302574158, -0.9339432120323181, -1.5444047451019287, -0.7665315270423889, -1.0636000633239746, -1.2433418035507202, -1.1463478803634644, -0.5280906558036804, -0.4899851977825165, -0.46196749806404114, -0.47640541195869446, -0.5156056880950928, -0.44697076082229614, -0.4895775318145752, 0.6207528114318848, 0.6368650794029236, 0.8581292033195496, 0.7937158346176147, -0.4597080647945404, -0.94536292552948, -1.282826542854309, 1.3564887046813965, 1.0355831384658813, 0.6831259727478027, 0.8795632123947144, 0.527516782283783, 0.9952840209007263, 0.472515732049942, -1.0857850313186646, -0.7536493539810181, -0.5012359023094177, -0.5436339378356934, -0.8075770735740662, -1.4213210344314575, -1.4963176250457764, -1.6076045036315918, -1.4249619245529175, -1.2952789068222046, -1.4438343048095703, -1.5064369440078735, -0.439824640750885, -0.4108191132545471, -0.46276822686195374, -0.5777450203895569, -0.48269930481910706, -0.4122500717639923, -0.5688129663467407, -0.7609167098999023, -0.722913920879364, -1.1302577257156372, -1.05634343624115, -0.5317032337188721, -1.1277767419815063, -0.771508514881134, -0.9548384547233582, -0.7870158553123474, -1.5237655639648438, -1.94563889503479, -1.918740153312683, -1.471062183380127, -1.4347690343856812, -1.4968329668045044, -1.8289793729782104, 0.5793860554695129, 0.6317192316055298, -0.7003434300422668, -0.6829138994216919, -0.5306078195571899, -0.5384237170219421, 0.9794619083404541, 0.7254477143287659, 0.7194108963012695, 0.9883028268814087, 0.8761797547340393, 0.8180332183837891, 0.7138572335243225
};

__hifram fixed LEAF_OUTPUT_WEIGHTS_offset[LEAF_OUTPUT_WEIGHTS_NNZ] = {
1, 2, 1, 4, 2, 3, 2, 1, 1, 1, 1, 1, 1, 1, 1, 2, 1, 1, 1, 1, 1, 2, 1, 1, 2, 2, 1, 1, 4, 1, 2, 1, 1, 1, 1, 1, 1, 1, 1, 1, 1, 1, 1, 1, 1, 1, 1, 1, 1, 1, 1, 1, 1, 1, 1, 1, 1, 1, 1, 1, 1, 1, 1, 1, 1, 1, 2, 1, 1, 2, 1, 1, 1, 1, 2, 1, 1, 2, 3, 1, 1, 1, 4, 1, 1, 1, 1, 1, 1, 1, 2, 1, 1, 1, 1, 1, 1, 1, 1, 1, 1, 1, 1, 1, 1, 2, 1, 2, 1, 1, 1, 1, 1, 1, 1, 1, 3, 2, 2, 1, 1, 1, 1, 2, 1, 1, 1, 1, 6, 1, 2, 1, 6, 6, 1, 2, 1, 6, 6, 1, 2, 1, 6, 3, 6, 1, 2, 3, 1, 3, 3, 1, 2, 1, 2, 3, 1, 3, 3, 1, 2, 1, 2, 3, 4, 9, 3, 20, 13, 3, 3, 1, 2, 1, 2, 3, 5, 6, 16, 6, 1, 1, 2, 1, 1, 4, 3, 1, 1, 1, 1, 1, 2, 1, 1, 4, 3, 1, 1, 33, 1, 1, 2, 1, 1, 4, 3, 1, 1, 1, 1, 1, 2, 1, 1, 4, 3, 1, 1, 1, 1, 1, 2, 1, 1, 4, 3, 1, 1, 5, 6, 17, 6, 5, 9, 1, 1, 5, 1, 1, 1, 18, 6, 5, 1, 1, 3, 4, 1, 1, 8, 6, 1, 9, 2, 4, 1, 1, 5, 1, 1, 1, 2, 4, 1, 1, 5, 1, 1, 1, 4, 1, 2, 1, 4, 1, 1, 3, 5, 1, 2, 1, 2, 5, 2, 1, 1, 1, 1, 1, 1, 1, 3, 1, 2, 1, 1, 1, 3, 3, 1, 1, 2, 3, 1, 1, 1, 1, 1, 1, 1, 2, 1, 1, 1, 1, 1, 2, 1, 2, 1, 1, 2, 1, 3, 1, 1, 2, 1, 6, 2, 1, 1, 3, 4, 3, 1, 2, 1, 1, 3, 1, 1, 1, 1, 1, 4, 3, 5, 4, 1, 1, 1, 2, 1, 1, 1, 1, 1, 1, 3, 1, 2, 1, 4, 2, 1, 1, 1, 2, 1, 1, 18, 1, 4, 1, 1, 1, 1, 1, 2, 1, 1, 2, 1, 4, 1, 1, 1, 1, 1, 2, 1, 1, 2, 1, 4, 1, 1, 2, 1, 2, 1, 19, 1, 4, 1, 1, 1, 1, 1, 2, 1, 1, 18, 1, 4, 1, 1, 1, 1, 1, 2, 1, 1, 2, 1, 4, 1, 1, 1, 1, 1, 2, 1, 1, 2, 2, 1, 2, 1, 4, 1, 21, 5, 1, 4, 1, 7, 1, 7, 6, 2, 1, 2, 1, 4, 1, 7, 1, 7, 6, 2, 1, 2, 1, 4, 1, 5, 3, 8, 21, 2, 1, 2, 1, 4, 1, 1, 7, 1, 1, 7, 1, 2, 1, 1, 1, 1, 1, 1, 2, 1, 1, 1, 1, 4, 1, 2, 6, 1, 2, 1, 1, 2, 1, 1, 3, 3, 3, 5, 1, 13, 3, 1, 28, 2, 1, 1, 1, 1, 1, 1, 2, 1, 1, 1, 1, 1, 7, 1, 1, 18, 2, 1, 1, 2, 1, 1, 1, 1, 1, 2, 1, 1, 1, 1, 1, 2, 1, 10, 2, 1, 1, 2, 1, 1, 1, 1, 1, 1, 1, 2, 1, 1, 3, 1, 1, 1, 4, 4, 2, 2, 4, 1, 1, 4, 3, 1, 1, 1, 1, 1, 1, 1, 1, 5, 1, 1, 1, 1, 1, 1, 1, 2, 1, 1, 1, 1, 1, 1, 2, 1, 1, 1, 1, 1, 2, 2, 1, 1, 1, 1, 1, 1, 1, 1, 1, 1, 1, 7, 1, 1, 1, 1, 2, 1, 2, 1, 1, 1, 1, 3, 1, 2, 1, 3, 1, 1, 3, 12, 1, 1, 1, 1, 4, 1, 1, 2, 1, 2, 1, 1, 1, 1, 1, 4, 1, 1, 2, 1, 1, 1, 3, 6, 11, 1, 6, 4, 1, 10, 4, 1, 1, 3, 8, 4, 4, 6, 1, 3, 1, 1, 1, 19, 6, 1, 3, 2, 17, 1, 1, 5, 1, 2, 3, 19, 2, 5, 1, 2, 3, 4, 1, 11, 3, 1, 1, 5, 1, 2, 3, 3, 1, 1, 5, 1, 2, 3, 4, 1, 14, 7, 1, 2, 6, 1, 1, 5, 1, 2, 3
};

__hifram fixed LEAF_OUTPUT_WEIGHTS_sizes[N_LEAVES + 1] = {
127, 0, 49, 55, 39, 92, 74, 0, 42, 55, 0, 0, 104, 52, 0, 43
};


__hifram fixed LEAF_OUTPUT_BIASES[N_LEAVES][OUTPUT_SIZE] = {
-0.32706013, -1.5291415, -0.60470426, 0.6291382, -1.6547416, 0.62908375, -1.2860591, -2.0431173, 1.0631309, -1.4516922, -1.3159028, 0.017826859, 0.9532845, 0.05268331, 0.20185167, -0.8560614, -1.1412139, -1.0977113, -0.66329783, -1.1722975, -1.0199642, -0.4452175, -0.62136227, -1.6445633, -0.34686285, 0.31037623, 1.4759347, -1.9685329, -1.0164422, -0.25996995, -1.1729844, 1.2887441, 0.40243882, 0.2838162, -1.191066, -0.1031663, 0.44036925, -1.3599615, -1.1552659, -0.91152513, -1.0093801, -0.4720563, -1.1376016, -1.455616, 0.56880987, -1.3155543, -0.7647432, 0.39520615, -0.6799875, -0.04058644, -0.8425763, 0.48608097, -1.3317226, 0.6047267, 0.36057252, -0.37863746, -2.4880779, 0.32085449, -2.9433382, 0.29540196, -1.7728872, 1.3069129, 1.0189131, 0.03990946, -1.2089566, -0.4389078, -0.5828497, -0.37593004, -0.8423295, -0.5911191, -1.2963995, -1.166061, -0.8048234, -1.5663601, 0.89854985, -0.042119607, -0.34684038, -0.8173843, -0.12426788, 0.85368145, 0.65699506, -0.16509435, 0.7822541, -0.362489, -1.0810522, -0.3552674, 0.66609937, -2.450213, -0.8569519, -1.2254534, 0.26775056, 0.4557707, -0.6253106, -0.15345447, -0.48463815, -0.12060482, 0.23746793, 0.021187777, 0.013952744, 0.28114095, -0.45709458, -0.56826323, -0.37863654, -0.9373623, -0.83309597, -0.26754364, -2.0142398, 0.19094978, -0.906257, 1.0603503
};

#endif /* WEIGHTS_H_ */

